digraph Tree {
node [shape=box, style="filled, rounded", color="black", fontname="helvetica"] ;
edge [fontname="helvetica"] ;
0 [label="Glucose <= 129.5\ngini = 0.45\nsamples = 537\nvalue = [354, 183]\nclass = Normal", fillcolor="#f2c29f"] ;
1 [label="BMI <= 26.3\ngini = 0.33\nsamples = 357\nvalue = [283, 74]\nclass = Normal", fillcolor="#eca26d"] ;
0 -> 1 [labeldistance=2.5, labelangle=45, headlabel="True"] ;
2 [label="BMI <= 9.1\ngini = 0.06\nsamples = 97\nvalue = [94, 3]\nclass = Normal", fillcolor="#e6853f"] ;
1 -> 2 ;
3 [label="Glucose <= 114.5\ngini = 0.44\nsamples = 6\nvalue = [4, 2]\nclass = Normal", fillcolor="#f2c09c"] ;
2 -> 3 ;
4 [label="gini = 0.0\nsamples = 4\nvalue = [4, 0]\nclass = Normal", fillcolor="#e58139"] ;
3 -> 4 ;
5 [label="gini = 0.0\nsamples = 2\nvalue = [0, 2]\nclass = Diabetes", fillcolor="#399de5"] ;
3 -> 5 ;
6 [label="DiabetesPedigreeFunction <= 0.67\ngini = 0.02\nsamples = 91\nvalue = [90, 1]\nclass = Normal", fillcolor="#e5823b"] ;
2 -> 6 ;
7 [label="gini = 0.0\nsamples = 76\nvalue = [76, 0]\nclass = Normal", fillcolor="#e58139"] ;
6 -> 7 ;
8 [label="DiabetesPedigreeFunction <= 0.71\ngini = 0.12\nsamples = 15\nvalue = [14, 1]\nclass = Normal", fillcolor="#e78a47"] ;
6 -> 8 ;
9 [label="gini = 0.0\nsamples = 1\nvalue = [0, 1]\nclass = Diabetes", fillcolor="#399de5"] ;
8 -> 9 ;
10 [label="gini = 0.0\nsamples = 14\nvalue = [14, 0]\nclass = Normal", fillcolor="#e58139"] ;
8 -> 10 ;
11 [label="Age <= 27.5\ngini = 0.4\nsamples = 260\nvalue = [189, 71]\nclass = Normal", fillcolor="#efb083"] ;
1 -> 11 ;
12 [label="BMI <= 45.4\ngini = 0.24\nsamples = 120\nvalue = [103, 17]\nclass = Normal", fillcolor="#e9965a"] ;
11 -> 12 ;
13 [label="Pregnancies <= 7.0\ngini = 0.21\nsamples = 116\nvalue = [102, 14]\nclass = Normal", fillcolor="#e99254"] ;
12 -> 13 ;
14 [label="BloodPressure <= 12.0\ngini = 0.2\nsamples = 115\nvalue = [102, 13]\nclass = Normal", fillcolor="#e89152"] ;
13 -> 14 ;
15 [label="(...)", fillcolor="#C0C0C0"] ;
14 -> 15 ;
16 [label="(...)", fillcolor="#C0C0C0"] ;
14 -> 16 ;
19 [label="gini = 0.0\nsamples = 1\nvalue = [0, 1]\nclass = Diabetes", fillcolor="#399de5"] ;
13 -> 19 ;
20 [label="DiabetesPedigreeFunction <= 0.69\ngini = 0.38\nsamples = 4\nvalue = [1, 3]\nclass = Diabetes", fillcolor="#7bbeee"] ;
12 -> 20 ;
21 [label="gini = 0.0\nsamples = 3\nvalue = [0, 3]\nclass = Diabetes", fillcolor="#399de5"] ;
20 -> 21 ;
22 [label="gini = 0.0\nsamples = 1\nvalue = [1, 0]\nclass = Normal", fillcolor="#e58139"] ;
20 -> 22 ;
23 [label="DiabetesPedigreeFunction <= 0.56\ngini = 0.47\nsamples = 140\nvalue = [86, 54]\nclass = Normal", fillcolor="#f5d0b5"] ;
11 -> 23 ;
24 [label="Glucose <= 101.5\ngini = 0.41\nsamples = 98\nvalue = [70, 28]\nclass = Normal", fillcolor="#efb388"] ;
23 -> 24 ;
25 [label="BloodPressure <= 27.0\ngini = 0.21\nsamples = 34\nvalue = [30, 4]\nclass = Normal", fillcolor="#e89253"] ;
24 -> 25 ;
26 [label="(...)", fillcolor="#C0C0C0"] ;
25 -> 26 ;
27 [label="(...)", fillcolor="#C0C0C0"] ;
25 -> 27 ;
30 [label="BloodPressure <= 67.0\ngini = 0.47\nsamples = 64\nvalue = [40, 24]\nclass = Normal", fillcolor="#f5cdb0"] ;
24 -> 30 ;
31 [label="(...)", fillcolor="#C0C0C0"] ;
30 -> 31 ;
34 [label="(...)", fillcolor="#C0C0C0"] ;
30 -> 34 ;
37 [label="Pregnancies <= 8.5\ngini = 0.47\nsamples = 42\nvalue = [16, 26]\nclass = Diabetes", fillcolor="#b3d9f5"] ;
23 -> 37 ;
38 [label="BloodPressure <= 87.0\ngini = 0.5\nsamples = 33\nvalue = [16, 17]\nclass = Diabetes", fillcolor="#f3f9fd"] ;
37 -> 38 ;
39 [label="(...)", fillcolor="#C0C0C0"] ;
38 -> 39 ;
42 [label="(...)", fillcolor="#C0C0C0"] ;
38 -> 42 ;
43 [label="gini = 0.0\nsamples = 9\nvalue = [0, 9]\nclass = Diabetes", fillcolor="#399de5"] ;
37 -> 43 ;
44 [label="BMI <= 27.85\ngini = 0.48\nsamples = 180\nvalue = [71, 109]\nclass = Diabetes", fillcolor="#baddf6"] ;
0 -> 44 [labeldistance=2.5, labelangle=-45, headlabel="False"] ;
45 [label="Glucose <= 145.5\ngini = 0.38\nsamples = 36\nvalue = [27, 9]\nclass = Normal", fillcolor="#eeab7b"] ;
44 -> 45 ;
46 [label="Age <= 59.5\ngini = 0.1\nsamples = 19\nvalue = [18, 1]\nclass = Normal", fillcolor="#e68844"] ;
45 -> 46 ;
47 [label="gini = 0.0\nsamples = 16\nvalue = [16, 0]\nclass = Normal", fillcolor="#e58139"] ;
46 -> 47 ;
48 [label="BMI <= 25.25\ngini = 0.44\nsamples = 3\nvalue = [2, 1]\nclass = Normal", fillcolor="#f2c09c"] ;
46 -> 48 ;
49 [label="gini = 0.0\nsamples = 1\nvalue = [0, 1]\nclass = Diabetes", fillcolor="#399de5"] ;
48 -> 49 ;
50 [label="gini = 0.0\nsamples = 2\nvalue = [2, 0]\nclass = Normal", fillcolor="#e58139"] ;
48 -> 50 ;
51 [label="Age <= 25.5\ngini = 0.5\nsamples = 17\nvalue = [9, 8]\nclass = Normal", fillcolor="#fcf1e9"] ;
45 -> 51 ;
52 [label="gini = 0.0\nsamples = 3\nvalue = [3, 0]\nclass = Normal", fillcolor="#e58139"] ;
51 -> 52 ;
53 [label="Age <= 62.0\ngini = 0.49\nsamples = 14\nvalue = [6, 8]\nclass = Diabetes", fillcolor="#cee6f8"] ;
51 -> 53 ;
54 [label="BMI <= 27.0\ngini = 0.4\nsamples = 11\nvalue = [3, 8]\nclass = Diabetes", fillcolor="#83c2ef"] ;
53 -> 54 ;
55 [label="(...)", fillcolor="#C0C0C0"] ;
54 -> 55 ;
58 [label="(...)", fillcolor="#C0C0C0"] ;
54 -> 58 ;
61 [label="gini = 0.0\nsamples = 3\nvalue = [3, 0]\nclass = Normal", fillcolor="#e58139"] ;
53 -> 61 ;
62 [label="Glucose <= 158.5\ngini = 0.42\nsamples = 144\nvalue = [44, 100]\nclass = Diabetes", fillcolor="#90c8f0"] ;
44 -> 62 ;
63 [label="Age <= 30.5\ngini = 0.49\nsamples = 88\nvalue = [37, 51]\nclass = Diabetes", fillcolor="#c9e4f8"] ;
62 -> 63 ;
64 [label="BloodPressure <= 23.0\ngini = 0.49\nsamples = 42\nvalue = [24, 18]\nclass = Normal", fillcolor="#f8e0ce"] ;
63 -> 64 ;
65 [label="gini = 0.0\nsamples = 4\nvalue = [0, 4]\nclass = Diabetes", fillcolor="#399de5"] ;
64 -> 65 ;
66 [label="BloodPressure <= 88.0\ngini = 0.47\nsamples = 38\nvalue = [24, 14]\nclass = Normal", fillcolor="#f4caac"] ;
64 -> 66 ;
67 [label="(...)", fillcolor="#C0C0C0"] ;
66 -> 67 ;
70 [label="(...)", fillcolor="#C0C0C0"] ;
66 -> 70 ;
71 [label="BMI <= 34.05\ngini = 0.41\nsamples = 46\nvalue = [13, 33]\nclass = Diabetes", fillcolor="#87c4ef"] ;
63 -> 71 ;
72 [label="BloodPressure <= 75.0\ngini = 0.49\nsamples = 21\nvalue = [9, 12]\nclass = Diabetes", fillcolor="#cee6f8"] ;
71 -> 72 ;
73 [label="(...)", fillcolor="#C0C0C0"] ;
72 -> 73 ;
74 [label="(...)", fillcolor="#C0C0C0"] ;
72 -> 74 ;
77 [label="DiabetesPedigreeFunction <= 1.09\ngini = 0.27\nsamples = 25\nvalue = [4, 21]\nclass = Diabetes", fillcolor="#5fb0ea"] ;
71 -> 77 ;
78 [label="(...)", fillcolor="#C0C0C0"] ;
77 -> 78 ;
81 [label="(...)", fillcolor="#C0C0C0"] ;
77 -> 81 ;
84 [label="DiabetesPedigreeFunction <= 1.16\ngini = 0.22\nsamples = 56\nvalue = [7, 49]\nclass = Diabetes", fillcolor="#55abe9"] ;
62 -> 84 ;
85 [label="DiabetesPedigreeFunction <= 0.34\ngini = 0.15\nsamples = 50\nvalue = [4, 46]\nclass = Diabetes", fillcolor="#4aa6e7"] ;
84 -> 85 ;
86 [label="Age <= 48.5\ngini = 0.33\nsamples = 19\nvalue = [4, 15]\nclass = Diabetes", fillcolor="#6eb7ec"] ;
85 -> 86 ;
87 [label="(...)", fillcolor="#C0C0C0"] ;
86 -> 87 ;
90 [label="(...)", fillcolor="#C0C0C0"] ;
86 -> 90 ;
93 [label="gini = 0.0\nsamples = 31\nvalue = [0, 31]\nclass = Diabetes", fillcolor="#399de5"] ;
85 -> 93 ;
94 [label="SkinThickness <= 40.5\ngini = 0.5\nsamples = 6\nvalue = [3, 3]\nclass = Normal", fillcolor="#ffffff"] ;
84 -> 94 ;
95 [label="Glucose <= 168.0\ngini = 0.38\nsamples = 4\nvalue = [3, 1]\nclass = Normal", fillcolor="#eeab7b"] ;
94 -> 95 ;
96 [label="(...)", fillcolor="#C0C0C0"] ;
95 -> 96 ;
97 [label="(...)", fillcolor="#C0C0C0"] ;
95 -> 97 ;
98 [label="gini = 0.0\nsamples = 2\nvalue = [0, 2]\nclass = Diabetes", fillcolor="#399de5"] ;
94 -> 98 ;
}